,0,1,2,3,4,5,6,7,8,9,10
0,0.014909450499410224,0.0023683881181087397,-0.012965876009468656,0.0042373723430133145,0.0056959662260565105,0.006595671906012119,-0.0015882646328262307,0.0087303055765003,0.0019536189110991647,-0.013298224790166886,0.0
1,0.009742492747339486,-0.01351848091443076,-0.0011513337924612033,0.0047335917121311905,0.013241542756497757,0.0042376475599044325,0.005939048783303055,0.010258365857442312,0.004788044415405895,-0.03433178685603035,0.0
2,-0.008622316943707384,-0.003951420582736299,-0.031522300754065896,-0.009560535071637151,-0.014323097870919631,-0.010120687973905728,0.01248615521376476,-0.014661032859194437,0.022187602171749102,0.002892184728501537,-1.4388898841385958e-05
3,0.009204224633759124,0.0045852407440704745,0.008498921345122758,0.013131106355775768,-0.011616141880864257,0.005364023313784774,0.0038799578867896533,0.018111700336548568,-0.00925780776083985,-0.008538327448783228,-0.0002908631923513585
4,-0.005113509074632246,-0.019866427831703847,-0.022474139651013872,0.017279476727610675,0.0013040015198835068,-0.008107816677680514,-0.0006767075930779903,-0.010477786645192428,-0.0076362936409097295,0.03619859763391632,-5.8844960642804725e-05
,0,1,2,3,4,5
0,-0.006099490295527282,-0.010101815415248232,-0.0010266879677842484,0.014171826089948547,0.008252840899238735,-0.00562986722435007
1,-0.004525043407043863,0.006659842363854635,-0.0005178314417170464,-0.02023769045757232,0.003216626219501327,-0.0026023848093707285
2,-0.007485499296097472,0.0005803540070901715,-0.014783798772441853,-0.0197877588751327,-0.007174762771524092,0.0
3,-0.005391226415414402,-0.013752677191665888,-0.0010435051136433258,-0.0015621779868019918,-0.007590880778529428,0.0
4,-0.012637321958055052,-0.008052954875828742,-0.010831512907949495,-0.0043503853265074435,-0.011709404063366331,0.0
,0,1,2,3,4,5
0,0.003252718964770848,0.00466042420043839,-0.008650267359362434,0.0005916611464593957,-0.006247944393309239,-0.08329735748119291
1,-0.003953913768358838,-0.0004977110186113154,-0.0019154198425961368,0.0068008878185356865,0.0019512846252975355,0.083297357481192
